digraph Tree {
node [shape=box] ;
0 [label="TotalWorkingYears <= 1.5\ngini = 0.277\nsamples = 3505\nvalue = [2922, 583]"] ;
1 [label="Age <= 33.5\ngini = 0.5\nsamples = 229\nvalue = [111, 118]"] ;
0 -> 1 [labeldistance=2.5, labelangle=45, headlabel="True"] ;
2 [label="MonthlyIncome <= 112610.0\ngini = 0.488\nsamples = 201\nvalue = [85, 116]"] ;
1 -> 2 ;
3 [label="MonthlyIncome <= 23140.0\ngini = 0.461\nsamples = 172\nvalue = [62, 110]"] ;
2 -> 3 ;
4 [label="PercentSalaryHike <= 12.5\ngini = 0.208\nsamples = 17\nvalue = [15, 2]"] ;
3 -> 4 ;
5 [label="Education <= 2.5\ngini = 0.5\nsamples = 4\nvalue = [2, 2]"] ;
4 -> 5 ;
6 [label="gini = 0.0\nsamples = 2\nvalue = [0, 2]"] ;
5 -> 6 ;
7 [label="gini = 0.0\nsamples = 2\nvalue = [2, 0]"] ;
5 -> 7 ;
8 [label="gini = 0.0\nsamples = 13\nvalue = [13, 0]"] ;
4 -> 8 ;
9 [label="Age <= 23.5\ngini = 0.423\nsamples = 155\nvalue = [47, 108]"] ;
3 -> 9 ;
10 [label="MonthlyIncome <= 106255.0\ngini = 0.228\nsamples = 61\nvalue = [8, 53]"] ;
9 -> 10 ;
11 [label="Age <= 18.5\ngini = 0.163\nsamples = 56\nvalue = [5, 51]"] ;
10 -> 11 ;
12 [label="DistanceFromHome <= 4.0\ngini = 0.486\nsamples = 12\nvalue = [5, 7]"] ;
11 -> 12 ;
13 [label="PercentSalaryHike <= 20.0\ngini = 0.219\nsamples = 8\nvalue = [1, 7]"] ;
12 -> 13 ;
14 [label="gini = 0.0\nsamples = 7\nvalue = [0, 7]"] ;
13 -> 14 ;
15 [label="gini = 0.0\nsamples = 1\nvalue = [1, 0]"] ;
13 -> 15 ;
16 [label="gini = 0.0\nsamples = 4\nvalue = [4, 0]"] ;
12 -> 16 ;
17 [label="gini = 0.0\nsamples = 44\nvalue = [0, 44]"] ;
11 -> 17 ;
18 [label="Age <= 20.0\ngini = 0.48\nsamples = 5\nvalue = [3, 2]"] ;
10 -> 18 ;
19 [label="gini = 0.0\nsamples = 2\nvalue = [0, 2]"] ;
18 -> 19 ;
20 [label="gini = 0.0\nsamples = 3\nvalue = [3, 0]"] ;
18 -> 20 ;
21 [label="EducationField <= 2.5\ngini = 0.486\nsamples = 94\nvalue = [39, 55]"] ;
9 -> 21 ;
22 [label="MonthlyIncome <= 32530.0\ngini = 0.391\nsamples = 60\nvalue = [16, 44]"] ;
21 -> 22 ;
23 [label="gini = 0.0\nsamples = 22\nvalue = [0, 22]"] ;
22 -> 23 ;
24 [label="MonthlyIncome <= 92100.0\ngini = 0.488\nsamples = 38\nvalue = [16, 22]"] ;
22 -> 24 ;
25 [label="JobRole <= 6.5\ngini = 0.495\nsamples = 29\nvalue = [16, 13]"] ;
24 -> 25 ;
26 [label="Age <= 28.5\ngini = 0.397\nsamples = 22\nvalue = [16, 6]"] ;
25 -> 26 ;
27 [label="gini = 0.0\nsamples = 15\nvalue = [15, 0]"] ;
26 -> 27 ;
28 [label="PercentSalaryHike <= 15.0\ngini = 0.245\nsamples = 7\nvalue = [1, 6]"] ;
26 -> 28 ;
29 [label="gini = 0.0\nsamples = 1\nvalue = [1, 0]"] ;
28 -> 29 ;
30 [label="gini = 0.0\nsamples = 6\nvalue = [0, 6]"] ;
28 -> 30 ;
31 [label="gini = 0.0\nsamples = 7\nvalue = [0, 7]"] ;
25 -> 31 ;
32 [label="gini = 0.0\nsamples = 9\nvalue = [0, 9]"] ;
24 -> 32 ;
33 [label="JobRole <= 2.5\ngini = 0.438\nsamples = 34\nvalue = [23, 11]"] ;
21 -> 33 ;
34 [label="gini = 0.0\nsamples = 8\nvalue = [0, 8]"] ;
33 -> 34 ;
35 [label="DistanceFromHome <= 15.5\ngini = 0.204\nsamples = 26\nvalue = [23, 3]"] ;
33 -> 35 ;
36 [label="gini = 0.0\nsamples = 23\nvalue = [23, 0]"] ;
35 -> 36 ;
37 [label="gini = 0.0\nsamples = 3\nvalue = [0, 3]"] ;
35 -> 37 ;
38 [label="YearsSinceLastPromotion <= 0.5\ngini = 0.328\nsamples = 29\nvalue = [23, 6]"] ;
2 -> 38 ;
39 [label="DistanceFromHome <= 13.0\ngini = 0.204\nsamples = 26\nvalue = [23, 3]"] ;
38 -> 39 ;
40 [label="gini = 0.0\nsamples = 20\nvalue = [20, 0]"] ;
39 -> 40 ;
41 [label="TrainingTimesLastYear <= 2.5\ngini = 0.5\nsamples = 6\nvalue = [3, 3]"] ;
39 -> 41 ;
42 [label="gini = 0.0\nsamples = 3\nvalue = [3, 0]"] ;
41 -> 42 ;
43 [label="gini = 0.0\nsamples = 3\nvalue = [0, 3]"] ;
41 -> 43 ;
44 [label="gini = 0.0\nsamples = 3\nvalue = [0, 3]"] ;
38 -> 44 ;
45 [label="MonthlyIncome <= 25425.0\ngini = 0.133\nsamples = 28\nvalue = [26, 2]"] ;
1 -> 45 ;
46 [label="PercentSalaryHike <= 12.0\ngini = 0.5\nsamples = 4\nvalue = [2, 2]"] ;
45 -> 46 ;
47 [label="gini = 0.0\nsamples = 2\nvalue = [2, 0]"] ;
46 -> 47 ;
48 [label="gini = 0.0\nsamples = 2\nvalue = [0, 2]"] ;
46 -> 48 ;
49 [label="gini = 0.0\nsamples = 24\nvalue = [24, 0]"] ;
45 -> 49 ;
50 [label="YearsAtCompany <= 2.5\ngini = 0.244\nsamples = 3276\nvalue = [2811, 465]"] ;
0 -> 50 [labeldistance=2.5, labelangle=-45, headlabel="False"] ;
51 [label="Age <= 37.5\ngini = 0.361\nsamples = 613\nvalue = [468, 145]"] ;
50 -> 51 ;
52 [label="TrainingTimesLastYear <= 1.5\ngini = 0.447\nsamples = 312\nvalue = [207, 105]"] ;
51 -> 52 ;
53 [label="gini = 0.0\nsamples = 21\nvalue = [21, 0]"] ;
52 -> 53 ;
54 [label="JobRole <= 1.5\ngini = 0.461\nsamples = 291\nvalue = [186, 105]"] ;
52 -> 54 ;
55 [label="NumCompaniesWorked <= 8.0\ngini = 0.142\nsamples = 26\nvalue = [24, 2]"] ;
54 -> 55 ;
56 [label="gini = 0.0\nsamples = 24\nvalue = [24, 0]"] ;
55 -> 56 ;
57 [label="gini = 0.0\nsamples = 2\nvalue = [0, 2]"] ;
55 -> 57 ;
58 [label="Age <= 27.5\ngini = 0.475\nsamples = 265\nvalue = [162, 103]"] ;
54 -> 58 ;
59 [label="TrainingTimesLastYear <= 5.5\ngini = 0.378\nsamples = 79\nvalue = [59, 20]"] ;
58 -> 59 ;
60 [label="EducationField <= 0.5\ngini = 0.347\nsamples = 76\nvalue = [59, 17]"] ;
59 -> 60 ;
61 [label="gini = 0.0\nsamples = 2\nvalue = [0, 2]"] ;
60 -> 61 ;
62 [label="Education <= 3.5\ngini = 0.323\nsamples = 74\nvalue = [59, 15]"] ;
60 -> 62 ;
63 [label="DistanceFromHome <= 2.5\ngini = 0.42\nsamples = 50\nvalue = [35, 15]"] ;
62 -> 63 ;
64 [label="gini = 0.0\nsamples = 11\nvalue = [11, 0]"] ;
63 -> 64 ;
65 [label="MonthlyIncome <= 80230.0\ngini = 0.473\nsamples = 39\nvalue = [24, 15]"] ;
63 -> 65 ;
66 [label="Age <= 22.5\ngini = 0.48\nsamples = 20\nvalue = [8, 12]"] ;
65 -> 66 ;
67 [label="gini = 0.0\nsamples = 8\nvalue = [0, 8]"] ;
66 -> 67 ;
68 [label="DistanceFromHome <= 6.0\ngini = 0.444\nsamples = 12\nvalue = [8, 4]"] ;
66 -> 68 ;
69 [label="gini = 0.0\nsamples = 4\nvalue = [0, 4]"] ;
68 -> 69 ;
70 [label="gini = 0.0\nsamples = 8\nvalue = [8, 0]"] ;
68 -> 70 ;
71 [label="NumCompaniesWorked <= 5.0\ngini = 0.266\nsamples = 19\nvalue = [16, 3]"] ;
65 -> 71 ;
72 [label="gini = 0.0\nsamples = 16\nvalue = [16, 0]"] ;
71 -> 72 ;
73 [label="gini = 0.0\nsamples = 3\nvalue = [0, 3]"] ;
71 -> 73 ;
74 [label="gini = 0.0\nsamples = 24\nvalue = [24, 0]"] ;
62 -> 74 ;
75 [label="gini = 0.0\nsamples = 3\nvalue = [0, 3]"] ;
59 -> 75 ;
76 [label="Age <= 31.5\ngini = 0.494\nsamples = 186\nvalue = [103, 83]"] ;
58 -> 76 ;
77 [label="YearsWithCurrManager <= 1.5\ngini = 0.471\nsamples = 71\nvalue = [27, 44]"] ;
76 -> 77 ;
78 [label="PercentSalaryHike <= 20.5\ngini = 0.305\nsamples = 32\nvalue = [6, 26]"] ;
77 -> 78 ;
79 [label="EducationField <= 4.0\ngini = 0.185\nsamples = 29\nvalue = [3, 26]"] ;
78 -> 79 ;
80 [label="gini = 0.0\nsamples = 26\nvalue = [0, 26]"] ;
79 -> 80 ;
81 [label="gini = 0.0\nsamples = 3\nvalue = [3, 0]"] ;
79 -> 81 ;
82 [label="gini = 0.0\nsamples = 3\nvalue = [3, 0]"] ;
78 -> 82 ;
83 [label="PercentSalaryHike <= 21.5\ngini = 0.497\nsamples = 39\nvalue = [21, 18]"] ;
77 -> 83 ;
84 [label="EducationField <= 4.0\ngini = 0.393\nsamples = 26\nvalue = [19, 7]"] ;
83 -> 84 ;
85 [label="DistanceFromHome <= 5.5\ngini = 0.172\nsamples = 21\nvalue = [19, 2]"] ;
84 -> 85 ;
86 [label="EducationField <= 1.5\ngini = 0.5\nsamples = 4\nvalue = [2, 2]"] ;
85 -> 86 ;
87 [label="gini = 0.0\nsamples = 2\nvalue = [2, 0]"] ;
86 -> 87 ;
88 [label="gini = 0.0\nsamples = 2\nvalue = [0, 2]"] ;
86 -> 88 ;
89 [label="gini = 0.0\nsamples = 17\nvalue = [17, 0]"] ;
85 -> 89 ;
90 [label="gini = 0.0\nsamples = 5\nvalue = [0, 5]"] ;
84 -> 90 ;
91 [label="EducationField <= 4.0\ngini = 0.26\nsamples = 13\nvalue = [2, 11]"] ;
83 -> 91 ;
92 [label="gini = 0.0\nsamples = 11\nvalue = [0, 11]"] ;
91 -> 92 ;
93 [label="gini = 0.0\nsamples = 2\nvalue = [2, 0]"] ;
91 -> 93 ;
94 [label="JobRole <= 6.5\ngini = 0.448\nsamples = 115\nvalue = [76, 39]"] ;
76 -> 94 ;
95 [label="MonthlyIncome <= 78190.0\ngini = 0.495\nsamples = 73\nvalue = [40, 33]"] ;
94 -> 95 ;
96 [label="NumCompaniesWorked <= 4.5\ngini = 0.44\nsamples = 55\nvalue = [37, 18]"] ;
95 -> 96 ;
97 [label="Age <= 34.5\ngini = 0.264\nsamples = 32\nvalue = [27, 5]"] ;
96 -> 97 ;
98 [label="YearsAtCompany <= 1.5\ngini = 0.486\nsamples = 12\nvalue = [7, 5]"] ;
97 -> 98 ;
99 [label="gini = 0.0\nsamples = 7\nvalue = [7, 0]"] ;
98 -> 99 ;
100 [label="gini = 0.0\nsamples = 5\nvalue = [0, 5]"] ;
98 -> 100 ;
101 [label="gini = 0.0\nsamples = 20\nvalue = [20, 0]"] ;
97 -> 101 ;
102 [label="JobRole <= 5.0\ngini = 0.491\nsamples = 23\nvalue = [10, 13]"] ;
96 -> 102 ;
103 [label="gini = 0.0\nsamples = 10\nvalue = [0, 10]"] ;
102 -> 103 ;
104 [label="PercentSalaryHike <= 12.5\ngini = 0.355\nsamples = 13\nvalue = [10, 3]"] ;
102 -> 104 ;
105 [label="gini = 0.0\nsamples = 3\nvalue = [0, 3]"] ;
104 -> 105 ;
106 [label="gini = 0.0\nsamples = 10\nvalue = [10, 0]"] ;
104 -> 106 ;
107 [label="DistanceFromHome <= 1.5\ngini = 0.278\nsamples = 18\nvalue = [3, 15]"] ;
95 -> 107 ;
108 [label="gini = 0.0\nsamples = 3\nvalue = [3, 0]"] ;
107 -> 108 ;
109 [label="gini = 0.0\nsamples = 15\nvalue = [0, 15]"] ;
107 -> 109 ;
110 [label="YearsAtCompany <= 0.5\ngini = 0.245\nsamples = 42\nvalue = [36, 6]"] ;
94 -> 110 ;
111 [label="Education <= 3.5\ngini = 0.496\nsamples = 11\nvalue = [5, 6]"] ;
110 -> 111 ;
112 [label="gini = 0.0\nsamples = 6\nvalue = [0, 6]"] ;
111 -> 112 ;
113 [label="gini = 0.0\nsamples = 5\nvalue = [5, 0]"] ;
111 -> 113 ;
114 [label="gini = 0.0\nsamples = 31\nvalue = [31, 0]"] ;
110 -> 114 ;
115 [label="NumCompaniesWorked <= 8.5\ngini = 0.23\nsamples = 301\nvalue = [261, 40]"] ;
51 -> 115 ;
116 [label="MonthlyIncome <= 34215.0\ngini = 0.194\nsamples = 285\nvalue = [254, 31]"] ;
115 -> 116 ;
117 [label="gini = 0.0\nsamples = 96\nvalue = [96, 0]"] ;
116 -> 117 ;
118 [label="MonthlyIncome <= 36770.0\ngini = 0.274\nsamples = 189\nvalue = [158, 31]"] ;
116 -> 118 ;
119 [label="gini = 0.0\nsamples = 9\nvalue = [0, 9]"] ;
118 -> 119 ;
120 [label="PercentSalaryHike <= 13.5\ngini = 0.215\nsamples = 180\nvalue = [158, 22]"] ;
118 -> 120 ;
121 [label="JobRole <= 1.5\ngini = 0.054\nsamples = 72\nvalue = [70, 2]"] ;
120 -> 121 ;
122 [label="DistanceFromHome <= 9.5\ngini = 0.346\nsamples = 9\nvalue = [7, 2]"] ;
121 -> 122 ;
123 [label="gini = 0.0\nsamples = 7\nvalue = [7, 0]"] ;
122 -> 123 ;
124 [label="gini = 0.0\nsamples = 2\nvalue = [0, 2]"] ;
122 -> 124 ;
125 [label="gini = 0.0\nsamples = 63\nvalue = [63, 0]"] ;
121 -> 125 ;
126 [label="PercentSalaryHike <= 15.5\ngini = 0.302\nsamples = 108\nvalue = [88, 20]"] ;
120 -> 126 ;
127 [label="YearsWithCurrManager <= 0.5\ngini = 0.449\nsamples = 44\nvalue = [29, 15]"] ;
126 -> 127 ;
128 [label="NumCompaniesWorked <= 2.5\ngini = 0.5\nsamples = 30\nvalue = [15, 15]"] ;
127 -> 128 ;
129 [label="MonthlyIncome <= 48375.0\ngini = 0.26\nsamples = 13\nvalue = [11, 2]"] ;
128 -> 129 ;
130 [label="gini = 0.0\nsamples = 2\nvalue = [0, 2]"] ;
129 -> 130 ;
131 [label="gini = 0.0\nsamples = 11\nvalue = [11, 0]"] ;
129 -> 131 ;
132 [label="MonthlyIncome <= 179195.0\ngini = 0.36\nsamples = 17\nvalue = [4, 13]"] ;
128 -> 132 ;
133 [label="Education <= 1.5\ngini = 0.231\nsamples = 15\nvalue = [2, 13]"] ;
132 -> 133 ;
134 [label="gini = 0.0\nsamples = 2\nvalue = [2, 0]"] ;
133 -> 134 ;
135 [label="gini = 0.0\nsamples = 13\nvalue = [0, 13]"] ;
133 -> 135 ;
136 [label="gini = 0.0\nsamples = 2\nvalue = [2, 0]"] ;
132 -> 136 ;
137 [label="gini = 0.0\nsamples = 14\nvalue = [14, 0]"] ;
127 -> 137 ;
138 [label="TrainingTimesLastYear <= 0.5\ngini = 0.144\nsamples = 64\nvalue = [59, 5]"] ;
126 -> 138 ;
139 [label="gini = 0.0\nsamples = 2\nvalue = [0, 2]"] ;
138 -> 139 ;
140 [label="MonthlyIncome <= 194860.0\ngini = 0.092\nsamples = 62\nvalue = [59, 3]"] ;
138 -> 140 ;
141 [label="Education <= 1.5\ngini = 0.063\nsamples = 61\nvalue = [59, 2]"] ;
140 -> 141 ;
142 [label="DistanceFromHome <= 8.0\ngini = 0.444\nsamples = 6\nvalue = [4, 2]"] ;
141 -> 142 ;
143 [label="gini = 0.0\nsamples = 4\nvalue = [4, 0]"] ;
142 -> 143 ;
144 [label="gini = 0.0\nsamples = 2\nvalue = [0, 2]"] ;
142 -> 144 ;
145 [label="gini = 0.0\nsamples = 55\nvalue = [55, 0]"] ;
141 -> 145 ;
146 [label="gini = 0.0\nsamples = 1\nvalue = [0, 1]"] ;
140 -> 146 ;
147 [label="EducationField <= 3.5\ngini = 0.492\nsamples = 16\nvalue = [7, 9]"] ;
115 -> 147 ;
148 [label="gini = 0.0\nsamples = 7\nvalue = [7, 0]"] ;
147 -> 148 ;
149 [label="gini = 0.0\nsamples = 9\nvalue = [0, 9]"] ;
147 -> 149 ;
150 [label="TotalWorkingYears <= 39.0\ngini = 0.211\nsamples = 2663\nvalue = [2343, 320]"] ;
50 -> 150 ;
151 [label="Age <= 33.5\ngini = 0.209\nsamples = 2658\nvalue = [2343, 315]"] ;
150 -> 151 ;
152 [label="NumCompaniesWorked <= 4.5\ngini = 0.271\nsamples = 955\nvalue = [801, 154]"] ;
151 -> 152 ;
153 [label="YearsSinceLastPromotion <= 5.5\ngini = 0.23\nsamples = 831\nvalue = [721, 110]"] ;
152 -> 153 ;
154 [label="Education <= 1.5\ngini = 0.194\nsamples = 734\nvalue = [654, 80]"] ;
153 -> 154 ;
155 [label="YearsWithCurrManager <= 1.5\ngini = 0.407\nsamples = 74\nvalue = [53, 21]"] ;
154 -> 155 ;
156 [label="gini = 0.0\nsamples = 4\nvalue = [0, 4]"] ;
155 -> 156 ;
157 [label="MonthlyIncome <= 64625.0\ngini = 0.368\nsamples = 70\nvalue = [53, 17]"] ;
155 -> 157 ;
158 [label="NumCompaniesWorked <= 0.5\ngini = 0.172\nsamples = 42\nvalue = [38, 4]"] ;
157 -> 158 ;
159 [label="Age <= 30.0\ngini = 0.463\nsamples = 11\nvalue = [7, 4]"] ;
158 -> 159 ;
160 [label="gini = 0.0\nsamples = 7\nvalue = [7, 0]"] ;
159 -> 160 ;
161 [label="gini = 0.0\nsamples = 4\nvalue = [0, 4]"] ;
159 -> 161 ;
162 [label="gini = 0.0\nsamples = 31\nvalue = [31, 0]"] ;
158 -> 162 ;
163 [label="DistanceFromHome <= 3.5\ngini = 0.497\nsamples = 28\nvalue = [15, 13]"] ;
157 -> 163 ;
164 [label="gini = 0.0\nsamples = 8\nvalue = [0, 8]"] ;
163 -> 164 ;
165 [label="TrainingTimesLastYear <= 5.5\ngini = 0.375\nsamples = 20\nvalue = [15, 5]"] ;
163 -> 165 ;
166 [label="NumCompaniesWorked <= 1.5\ngini = 0.208\nsamples = 17\nvalue = [15, 2]"] ;
165 -> 166 ;
167 [label="gini = 0.0\nsamples = 15\nvalue = [15, 0]"] ;
166 -> 167 ;
168 [label="gini = 0.0\nsamples = 2\nvalue = [0, 2]"] ;
166 -> 168 ;
169 [label="gini = 0.0\nsamples = 3\nvalue = [0, 3]"] ;
165 -> 169 ;
170 [label="MonthlyIncome <= 196980.0\ngini = 0.163\nsamples = 660\nvalue = [601, 59]"] ;
154 -> 170 ;
171 [label="DistanceFromHome <= 24.5\ngini = 0.156\nsamples = 657\nvalue = [601, 56]"] ;
170 -> 171 ;
172 [label="Age <= 23.5\ngini = 0.13\nsamples = 617\nvalue = [574, 43]"] ;
171 -> 172 ;
173 [label="PercentSalaryHike <= 11.5\ngini = 0.368\nsamples = 37\nvalue = [28, 9]"] ;
172 -> 173 ;
174 [label="gini = 0.0\nsamples = 14\nvalue = [14, 0]"] ;
173 -> 174 ;
175 [label="MonthlyIncome <= 49525.0\ngini = 0.476\nsamples = 23\nvalue = [14, 9]"] ;
173 -> 175 ;
176 [label="gini = 0.0\nsamples = 9\nvalue = [9, 0]"] ;
175 -> 176 ;
177 [label="DistanceFromHome <= 16.0\ngini = 0.459\nsamples = 14\nvalue = [5, 9]"] ;
175 -> 177 ;
178 [label="Education <= 3.5\ngini = 0.18\nsamples = 10\nvalue = [1, 9]"] ;
177 -> 178 ;
179 [label="gini = 0.0\nsamples = 7\nvalue = [0, 7]"] ;
178 -> 179 ;
180 [label="TotalWorkingYears <= 3.5\ngini = 0.444\nsamples = 3\nvalue = [1, 2]"] ;
178 -> 180 ;
181 [label="gini = 0.0\nsamples = 1\nvalue = [1, 0]"] ;
180 -> 181 ;
182 [label="gini = 0.0\nsamples = 2\nvalue = [0, 2]"] ;
180 -> 182 ;
183 [label="gini = 0.0\nsamples = 4\nvalue = [4, 0]"] ;
177 -> 183 ;
184 [label="YearsWithCurrManager <= 8.5\ngini = 0.11\nsamples = 580\nvalue = [546, 34]"] ;
172 -> 184 ;
185 [label="MonthlyIncome <= 191190.0\ngini = 0.092\nsamples = 540\nvalue = [514, 26]"] ;
184 -> 185 ;
186 [label="DistanceFromHome <= 5.5\ngini = 0.08\nsamples = 524\nvalue = [502, 22]"] ;
185 -> 186 ;
187 [label="TrainingTimesLastYear <= 4.5\ngini = 0.14\nsamples = 238\nvalue = [220, 18]"] ;
186 -> 187 ;
188 [label="YearsAtCompany <= 9.5\ngini = 0.091\nsamples = 210\nvalue = [200, 10]"] ;
187 -> 188 ;
189 [label="JobRole <= 5.5\ngini = 0.043\nsamples = 183\nvalue = [179, 4]"] ;
188 -> 189 ;
190 [label="gini = 0.0\nsamples = 97\nvalue = [97, 0]"] ;
189 -> 190 ;
191 [label="NumCompaniesWorked <= 0.5\ngini = 0.089\nsamples = 86\nvalue = [82, 4]"] ;
189 -> 191 ;
192 [label="YearsWithCurrManager <= 4.5\ngini = 0.236\nsamples = 22\nvalue = [19, 3]"] ;
191 -> 192 ;
193 [label="DistanceFromHome <= 2.5\ngini = 0.095\nsamples = 20\nvalue = [19, 1]"] ;
192 -> 193 ;
194 [label="gini = 0.0\nsamples = 19\nvalue = [19, 0]"] ;
193 -> 194 ;
195 [label="gini = 0.0\nsamples = 1\nvalue = [0, 1]"] ;
193 -> 195 ;
196 [label="gini = 0.0\nsamples = 2\nvalue = [0, 2]"] ;
192 -> 196 ;
197 [label="PercentSalaryHike <= 20.5\ngini = 0.031\nsamples = 64\nvalue = [63, 1]"] ;
191 -> 197 ;
198 [label="gini = 0.0\nsamples = 60\nvalue = [60, 0]"] ;
197 -> 198 ;
199 [label="DistanceFromHome <= 1.5\ngini = 0.375\nsamples = 4\nvalue = [3, 1]"] ;
197 -> 199 ;
200 [label="gini = 0.0\nsamples = 3\nvalue = [3, 0]"] ;
199 -> 200 ;
201 [label="gini = 0.0\nsamples = 1\nvalue = [0, 1]"] ;
199 -> 201 ;
202 [label="JobRole <= 6.5\ngini = 0.346\nsamples = 27\nvalue = [21, 6]"] ;
188 -> 202 ;
203 [label="gini = 0.0\nsamples = 19\nvalue = [19, 0]"] ;
202 -> 203 ;
204 [label="Education <= 3.5\ngini = 0.375\nsamples = 8\nvalue = [2, 6]"] ;
202 -> 204 ;
205 [label="gini = 0.0\nsamples = 6\nvalue = [0, 6]"] ;
204 -> 205 ;
206 [label="gini = 0.0\nsamples = 2\nvalue = [2, 0]"] ;
204 -> 206 ;
207 [label="NumCompaniesWorked <= 1.5\ngini = 0.408\nsamples = 28\nvalue = [20, 8]"] ;
187 -> 207 ;
208 [label="gini = 0.0\nsamples = 13\nvalue = [13, 0]"] ;
207 -> 208 ;
209 [label="DistanceFromHome <= 1.5\ngini = 0.498\nsamples = 15\nvalue = [7, 8]"] ;
207 -> 209 ;
210 [label="gini = 0.0\nsamples = 7\nvalue = [7, 0]"] ;
209 -> 210 ;
211 [label="gini = 0.0\nsamples = 8\nvalue = [0, 8]"] ;
209 -> 211 ;
212 [label="MonthlyIncome <= 20345.0\ngini = 0.028\nsamples = 286\nvalue = [282, 4]"] ;
186 -> 212 ;
213 [label="MonthlyIncome <= 15710.0\ngini = 0.346\nsamples = 9\nvalue = [7, 2]"] ;
212 -> 213 ;
214 [label="gini = 0.0\nsamples = 7\nvalue = [7, 0]"] ;
213 -> 214 ;
215 [label="gini = 0.0\nsamples = 2\nvalue = [0, 2]"] ;
213 -> 215 ;
216 [label="Age <= 26.5\ngini = 0.014\nsamples = 277\nvalue = [275, 2]"] ;
212 -> 216 ;
217 [label="DistanceFromHome <= 12.5\ngini = 0.073\nsamples = 53\nvalue = [51, 2]"] ;
216 -> 217 ;
218 [label="gini = 0.0\nsamples = 41\nvalue = [41, 0]"] ;
217 -> 218 ;
219 [label="NumCompaniesWorked <= 0.5\ngini = 0.278\nsamples = 12\nvalue = [10, 2]"] ;
217 -> 219 ;
220 [label="gini = 0.0\nsamples = 2\nvalue = [0, 2]"] ;
219 -> 220 ;
221 [label="gini = 0.0\nsamples = 10\nvalue = [10, 0]"] ;
219 -> 221 ;
222 [label="gini = 0.0\nsamples = 224\nvalue = [224, 0]"] ;
216 -> 222 ;
223 [label="JobRole <= 3.0\ngini = 0.375\nsamples = 16\nvalue = [12, 4]"] ;
185 -> 223 ;
224 [label="gini = 0.0\nsamples = 3\nvalue = [0, 3]"] ;
223 -> 224 ;
225 [label="MonthlyIncome <= 191665.0\ngini = 0.142\nsamples = 13\nvalue = [12, 1]"] ;
223 -> 225 ;
226 [label="gini = 0.0\nsamples = 1\nvalue = [0, 1]"] ;
225 -> 226 ;
227 [label="gini = 0.0\nsamples = 12\nvalue = [12, 0]"] ;
225 -> 227 ;
228 [label="Age <= 28.5\ngini = 0.32\nsamples = 40\nvalue = [32, 8]"] ;
184 -> 228 ;
229 [label="gini = 0.0\nsamples = 3\nvalue = [0, 3]"] ;
228 -> 229 ;
230 [label="MonthlyIncome <= 25290.0\ngini = 0.234\nsamples = 37\nvalue = [32, 5]"] ;
228 -> 230 ;
231 [label="Age <= 30.0\ngini = 0.5\nsamples = 10\nvalue = [5, 5]"] ;
230 -> 231 ;
232 [label="gini = 0.0\nsamples = 5\nvalue = [0, 5]"] ;
231 -> 232 ;
233 [label="gini = 0.0\nsamples = 5\nvalue = [5, 0]"] ;
231 -> 233 ;
234 [label="gini = 0.0\nsamples = 27\nvalue = [27, 0]"] ;
230 -> 234 ;
235 [label="TotalWorkingYears <= 7.5\ngini = 0.439\nsamples = 40\nvalue = [27, 13]"] ;
171 -> 235 ;
236 [label="TrainingTimesLastYear <= 2.5\ngini = 0.491\nsamples = 23\nvalue = [10, 13]"] ;
235 -> 236 ;
237 [label="gini = 0.0\nsamples = 10\nvalue = [0, 10]"] ;
236 -> 237 ;
238 [label="YearsWithCurrManager <= 5.0\ngini = 0.355\nsamples = 13\nvalue = [10, 3]"] ;
236 -> 238 ;
239 [label="gini = 0.0\nsamples = 10\nvalue = [10, 0]"] ;
238 -> 239 ;
240 [label="gini = 0.0\nsamples = 3\nvalue = [0, 3]"] ;
238 -> 240 ;
241 [label="gini = 0.0\nsamples = 17\nvalue = [17, 0]"] ;
235 -> 241 ;
242 [label="gini = 0.0\nsamples = 3\nvalue = [0, 3]"] ;
170 -> 242 ;
243 [label="YearsWithCurrManager <= 8.5\ngini = 0.427\nsamples = 97\nvalue = [67, 30]"] ;
153 -> 243 ;
244 [label="DistanceFromHome <= 28.5\ngini = 0.471\nsamples = 79\nvalue = [49, 30]"] ;
243 -> 244 ;
245 [label="DistanceFromHome <= 15.5\ngini = 0.447\nsamples = 74\nvalue = [49, 25]"] ;
244 -> 245 ;
246 [label="NumCompaniesWorked <= 0.5\ngini = 0.49\nsamples = 58\nvalue = [33, 25]"] ;
245 -> 246 ;
247 [label="TotalWorkingYears <= 9.5\ngini = 0.278\nsamples = 18\nvalue = [15, 3]"] ;
246 -> 247 ;
248 [label="TrainingTimesLastYear <= 4.0\ngini = 0.375\nsamples = 4\nvalue = [1, 3]"] ;
247 -> 248 ;
249 [label="gini = 0.0\nsamples = 3\nvalue = [0, 3]"] ;
248 -> 249 ;
250 [label="gini = 0.0\nsamples = 1\nvalue = [1, 0]"] ;
248 -> 250 ;
251 [label="gini = 0.0\nsamples = 14\nvalue = [14, 0]"] ;
247 -> 251 ;
252 [label="JobRole <= 3.5\ngini = 0.495\nsamples = 40\nvalue = [18, 22]"] ;
246 -> 252 ;
253 [label="NumCompaniesWorked <= 1.5\ngini = 0.165\nsamples = 11\nvalue = [1, 10]"] ;
252 -> 253 ;
254 [label="gini = 0.0\nsamples = 10\nvalue = [0, 10]"] ;
253 -> 254 ;
255 [label="gini = 0.0\nsamples = 1\nvalue = [1, 0]"] ;
253 -> 255 ;
256 [label="Education <= 3.5\ngini = 0.485\nsamples = 29\nvalue = [17, 12]"] ;
252 -> 256 ;
257 [label="DistanceFromHome <= 9.0\ngini = 0.413\nsamples = 24\nvalue = [17, 7]"] ;
256 -> 257 ;
258 [label="MonthlyIncome <= 175525.0\ngini = 0.208\nsamples = 17\nvalue = [15, 2]"] ;
257 -> 258 ;
259 [label="gini = 0.0\nsamples = 13\nvalue = [13, 0]"] ;
258 -> 259 ;
260 [label="PercentSalaryHike <= 12.5\ngini = 0.5\nsamples = 4\nvalue = [2, 2]"] ;
258 -> 260 ;
261 [label="gini = 0.0\nsamples = 2\nvalue = [2, 0]"] ;
260 -> 261 ;
262 [label="gini = 0.0\nsamples = 2\nvalue = [0, 2]"] ;
260 -> 262 ;
263 [label="EducationField <= 3.5\ngini = 0.408\nsamples = 7\nvalue = [2, 5]"] ;
257 -> 263 ;
264 [label="gini = 0.0\nsamples = 5\nvalue = [0, 5]"] ;
263 -> 264 ;
265 [label="gini = 0.0\nsamples = 2\nvalue = [2, 0]"] ;
263 -> 265 ;
266 [label="gini = 0.0\nsamples = 5\nvalue = [0, 5]"] ;
256 -> 266 ;
267 [label="gini = 0.0\nsamples = 16\nvalue = [16, 0]"] ;
245 -> 267 ;
268 [label="gini = 0.0\nsamples = 5\nvalue = [0, 5]"] ;
244 -> 268 ;
269 [label="gini = 0.0\nsamples = 18\nvalue = [18, 0]"] ;
243 -> 269 ;
270 [label="NumCompaniesWorked <= 7.5\ngini = 0.458\nsamples = 124\nvalue = [80, 44]"] ;
152 -> 270 ;
271 [label="EducationField <= 1.5\ngini = 0.5\nsamples = 85\nvalue = [43, 42]"] ;
270 -> 271 ;
272 [label="MonthlyIncome <= 182575.0\ngini = 0.399\nsamples = 40\nvalue = [11, 29]"] ;
271 -> 272 ;
273 [label="Education <= 1.5\ngini = 0.313\nsamples = 36\nvalue = [7, 29]"] ;
272 -> 273 ;
274 [label="gini = 0.0\nsamples = 3\nvalue = [3, 0]"] ;
273 -> 274 ;
275 [label="JobRole <= 6.5\ngini = 0.213\nsamples = 33\nvalue = [4, 29]"] ;
273 -> 275 ;
276 [label="JobRole <= 0.5\ngini = 0.069\nsamples = 28\nvalue = [1, 27]"] ;
275 -> 276 ;
277 [label="gini = 0.0\nsamples = 1\nvalue = [1, 0]"] ;
276 -> 277 ;
278 [label="gini = 0.0\nsamples = 27\nvalue = [0, 27]"] ;
276 -> 278 ;
279 [label="Age <= 29.0\ngini = 0.48\nsamples = 5\nvalue = [3, 2]"] ;
275 -> 279 ;
280 [label="gini = 0.0\nsamples = 2\nvalue = [0, 2]"] ;
279 -> 280 ;
281 [label="gini = 0.0\nsamples = 3\nvalue = [3, 0]"] ;
279 -> 281 ;
282 [label="gini = 0.0\nsamples = 4\nvalue = [4, 0]"] ;
272 -> 282 ;
283 [label="TotalWorkingYears <= 9.5\ngini = 0.411\nsamples = 45\nvalue = [32, 13]"] ;
271 -> 283 ;
284 [label="Education <= 3.5\ngini = 0.499\nsamples = 27\nvalue = [14, 13]"] ;
283 -> 284 ;
285 [label="Age <= 31.0\ngini = 0.444\nsamples = 21\nvalue = [14, 7]"] ;
284 -> 285 ;
286 [label="MonthlyIncome <= 81110.0\ngini = 0.42\nsamples = 10\nvalue = [3, 7]"] ;
285 -> 286 ;
287 [label="gini = 0.0\nsamples = 7\nvalue = [0, 7]"] ;
286 -> 287 ;
288 [label="gini = 0.0\nsamples = 3\nvalue = [3, 0]"] ;
286 -> 288 ;
289 [label="gini = 0.0\nsamples = 11\nvalue = [11, 0]"] ;
285 -> 289 ;
290 [label="gini = 0.0\nsamples = 6\nvalue = [0, 6]"] ;
284 -> 290 ;
291 [label="gini = 0.0\nsamples = 18\nvalue = [18, 0]"] ;
283 -> 291 ;
292 [label="PercentSalaryHike <= 21.5\ngini = 0.097\nsamples = 39\nvalue = [37, 2]"] ;
270 -> 292 ;
293 [label="gini = 0.0\nsamples = 35\nvalue = [35, 0]"] ;
292 -> 293 ;
294 [label="YearsAtCompany <= 4.5\ngini = 0.5\nsamples = 4\nvalue = [2, 2]"] ;
292 -> 294 ;
295 [label="gini = 0.0\nsamples = 2\nvalue = [0, 2]"] ;
294 -> 295 ;
296 [label="gini = 0.0\nsamples = 2\nvalue = [2, 0]"] ;
294 -> 296 ;
297 [label="MonthlyIncome <= 20045.0\ngini = 0.171\nsamples = 1703\nvalue = [1542, 161]"] ;
151 -> 297 ;
298 [label="Age <= 48.5\ngini = 0.46\nsamples = 39\nvalue = [25, 14]"] ;
297 -> 298 ;
299 [label="MonthlyIncome <= 18815.0\ngini = 0.278\nsamples = 30\nvalue = [25, 5]"] ;
298 -> 299 ;
300 [label="gini = 0.0\nsamples = 25\nvalue = [25, 0]"] ;
299 -> 300 ;
301 [label="gini = 0.0\nsamples = 5\nvalue = [0, 5]"] ;
299 -> 301 ;
302 [label="gini = 0.0\nsamples = 9\nvalue = [0, 9]"] ;
298 -> 302 ;
303 [label="EducationField <= 0.5\ngini = 0.161\nsamples = 1664\nvalue = [1517, 147]"] ;
297 -> 303 ;
304 [label="MonthlyIncome <= 38000.0\ngini = 0.469\nsamples = 24\nvalue = [15, 9]"] ;
303 -> 304 ;
305 [label="gini = 0.0\nsamples = 11\nvalue = [11, 0]"] ;
304 -> 305 ;
306 [label="MonthlyIncome <= 76375.0\ngini = 0.426\nsamples = 13\nvalue = [4, 9]"] ;
304 -> 306 ;
307 [label="gini = 0.0\nsamples = 9\nvalue = [0, 9]"] ;
306 -> 307 ;
308 [label="gini = 0.0\nsamples = 4\nvalue = [4, 0]"] ;
306 -> 308 ;
309 [label="YearsWithCurrManager <= 0.5\ngini = 0.154\nsamples = 1640\nvalue = [1502, 138]"] ;
303 -> 309 ;
310 [label="YearsSinceLastPromotion <= 0.5\ngini = 0.35\nsamples = 84\nvalue = [65, 19]"] ;
309 -> 310 ;
311 [label="gini = 0.0\nsamples = 26\nvalue = [26, 0]"] ;
310 -> 311 ;
312 [label="Education <= 3.5\ngini = 0.441\nsamples = 58\nvalue = [39, 19]"] ;
310 -> 312 ;
313 [label="YearsSinceLastPromotion <= 6.5\ngini = 0.493\nsamples = 43\nvalue = [24, 19]"] ;
312 -> 313 ;
314 [label="PercentSalaryHike <= 16.0\ngini = 0.5\nsamples = 37\nvalue = [18, 19]"] ;
313 -> 314 ;
315 [label="EducationField <= 1.5\ngini = 0.461\nsamples = 25\nvalue = [9, 16]"] ;
314 -> 315 ;
316 [label="gini = 0.0\nsamples = 8\nvalue = [0, 8]"] ;
315 -> 316 ;
317 [label="MonthlyIncome <= 42955.0\ngini = 0.498\nsamples = 17\nvalue = [9, 8]"] ;
315 -> 317 ;
318 [label="gini = 0.0\nsamples = 6\nvalue = [6, 0]"] ;
317 -> 318 ;
319 [label="NumCompaniesWorked <= 5.0\ngini = 0.397\nsamples = 11\nvalue = [3, 8]"] ;
317 -> 319 ;
320 [label="gini = 0.0\nsamples = 8\nvalue = [0, 8]"] ;
319 -> 320 ;
321 [label="gini = 0.0\nsamples = 3\nvalue = [3, 0]"] ;
319 -> 321 ;
322 [label="MonthlyIncome <= 73010.0\ngini = 0.375\nsamples = 12\nvalue = [9, 3]"] ;
314 -> 322 ;
323 [label="YearsAtCompany <= 4.5\ngini = 0.18\nsamples = 10\nvalue = [9, 1]"] ;
322 -> 323 ;
324 [label="gini = 0.0\nsamples = 1\nvalue = [0, 1]"] ;
323 -> 324 ;
325 [label="gini = 0.0\nsamples = 9\nvalue = [9, 0]"] ;
323 -> 325 ;
326 [label="gini = 0.0\nsamples = 2\nvalue = [0, 2]"] ;
322 -> 326 ;
327 [label="gini = 0.0\nsamples = 6\nvalue = [6, 0]"] ;
313 -> 327 ;
328 [label="gini = 0.0\nsamples = 15\nvalue = [15, 0]"] ;
312 -> 328 ;
329 [label="PercentSalaryHike <= 23.5\ngini = 0.141\nsamples = 1556\nvalue = [1437, 119]"] ;
309 -> 329 ;
330 [label="TrainingTimesLastYear <= 3.5\ngini = 0.13\nsamples = 1503\nvalue = [1398, 105]"] ;
329 -> 330 ;
331 [label="YearsSinceLastPromotion <= 6.5\ngini = 0.155\nsamples = 1197\nvalue = [1096, 101]"] ;
330 -> 331 ;
332 [label="YearsWithCurrManager <= 7.5\ngini = 0.126\nsamples = 947\nvalue = [883, 64]"] ;
331 -> 332 ;
333 [label="YearsSinceLastPromotion <= 1.5\ngini = 0.164\nsamples = 675\nvalue = [614, 61]"] ;
332 -> 333 ;
334 [label="MonthlyIncome <= 21155.0\ngini = 0.128\nsamples = 524\nvalue = [488, 36]"] ;
333 -> 334 ;
335 [label="PercentSalaryHike <= 14.0\ngini = 0.42\nsamples = 10\nvalue = [7, 3]"] ;
334 -> 335 ;
336 [label="YearsAtCompany <= 3.5\ngini = 0.375\nsamples = 4\nvalue = [1, 3]"] ;
335 -> 336 ;
337 [label="gini = 0.0\nsamples = 1\nvalue = [1, 0]"] ;
336 -> 337 ;
338 [label="gini = 0.0\nsamples = 3\nvalue = [0, 3]"] ;
336 -> 338 ;
339 [label="gini = 0.0\nsamples = 6\nvalue = [6, 0]"] ;
335 -> 339 ;
340 [label="DistanceFromHome <= 21.5\ngini = 0.12\nsamples = 514\nvalue = [481, 33]"] ;
334 -> 340 ;
341 [label="DistanceFromHome <= 3.5\ngini = 0.147\nsamples = 414\nvalue = [381, 33]"] ;
340 -> 341 ;
342 [label="PercentSalaryHike <= 22.5\ngini = 0.052\nsamples = 150\nvalue = [146, 4]"] ;
341 -> 342 ;
343 [label="Age <= 38.5\ngini = 0.04\nsamples = 148\nvalue = [145, 3]"] ;
342 -> 343 ;
344 [label="PercentSalaryHike <= 18.0\ngini = 0.107\nsamples = 53\nvalue = [50, 3]"] ;
343 -> 344 ;
345 [label="NumCompaniesWorked <= 6.5\ngini = 0.043\nsamples = 45\nvalue = [44, 1]"] ;
344 -> 345 ;
346 [label="gini = 0.0\nsamples = 41\nvalue = [41, 0]"] ;
345 -> 346 ;
347 [label="PercentSalaryHike <= 13.5\ngini = 0.375\nsamples = 4\nvalue = [3, 1]"] ;
345 -> 347 ;
348 [label="gini = 0.0\nsamples = 1\nvalue = [0, 1]"] ;
347 -> 348 ;
349 [label="gini = 0.0\nsamples = 3\nvalue = [3, 0]"] ;
347 -> 349 ;
350 [label="NumCompaniesWorked <= 3.0\ngini = 0.375\nsamples = 8\nvalue = [6, 2]"] ;
344 -> 350 ;
351 [label="gini = 0.0\nsamples = 6\nvalue = [6, 0]"] ;
350 -> 351 ;
352 [label="gini = 0.0\nsamples = 2\nvalue = [0, 2]"] ;
350 -> 352 ;
353 [label="gini = 0.0\nsamples = 95\nvalue = [95, 0]"] ;
343 -> 353 ;
354 [label="YearsWithCurrManager <= 5.5\ngini = 0.5\nsamples = 2\nvalue = [1, 1]"] ;
342 -> 354 ;
355 [label="gini = 0.0\nsamples = 1\nvalue = [1, 0]"] ;
354 -> 355 ;
356 [label="gini = 0.0\nsamples = 1\nvalue = [0, 1]"] ;
354 -> 356 ;
357 [label="DistanceFromHome <= 6.5\ngini = 0.196\nsamples = 264\nvalue = [235, 29]"] ;
341 -> 357 ;
358 [label="Age <= 42.5\ngini = 0.375\nsamples = 72\nvalue = [54, 18]"] ;
357 -> 358 ;
359 [label="Age <= 34.5\ngini = 0.093\nsamples = 41\nvalue = [39, 2]"] ;
358 -> 359 ;
360 [label="gini = 0.0\nsamples = 2\nvalue = [0, 2]"] ;
359 -> 360 ;
361 [label="gini = 0.0\nsamples = 39\nvalue = [39, 0]"] ;
359 -> 361 ;
362 [label="Education <= 1.5\ngini = 0.499\nsamples = 31\nvalue = [15, 16]"] ;
358 -> 362 ;
363 [label="gini = 0.0\nsamples = 9\nvalue = [9, 0]"] ;
362 -> 363 ;
364 [label="TrainingTimesLastYear <= 2.5\ngini = 0.397\nsamples = 22\nvalue = [6, 16]"] ;
362 -> 364 ;
365 [label="TotalWorkingYears <= 27.5\ngini = 0.124\nsamples = 15\nvalue = [1, 14]"] ;
364 -> 365 ;
366 [label="gini = 0.0\nsamples = 14\nvalue = [0, 14]"] ;
365 -> 366 ;
367 [label="gini = 0.0\nsamples = 1\nvalue = [1, 0]"] ;
365 -> 367 ;
368 [label="YearsWithCurrManager <= 2.5\ngini = 0.408\nsamples = 7\nvalue = [5, 2]"] ;
364 -> 368 ;
369 [label="gini = 0.0\nsamples = 5\nvalue = [5, 0]"] ;
368 -> 369 ;
370 [label="gini = 0.0\nsamples = 2\nvalue = [0, 2]"] ;
368 -> 370 ;
371 [label="DistanceFromHome <= 14.5\ngini = 0.108\nsamples = 192\nvalue = [181, 11]"] ;
357 -> 371 ;
372 [label="TotalWorkingYears <= 3.5\ngini = 0.014\nsamples = 137\nvalue = [136, 1]"] ;
371 -> 372 ;
373 [label="PercentSalaryHike <= 11.5\ngini = 0.375\nsamples = 4\nvalue = [3, 1]"] ;
372 -> 373 ;
374 [label="gini = 0.0\nsamples = 1\nvalue = [0, 1]"] ;
373 -> 374 ;
375 [label="gini = 0.0\nsamples = 3\nvalue = [3, 0]"] ;
373 -> 375 ;
376 [label="gini = 0.0\nsamples = 133\nvalue = [133, 0]"] ;
372 -> 376 ;
377 [label="EducationField <= 2.5\ngini = 0.298\nsamples = 55\nvalue = [45, 10]"] ;
371 -> 377 ;
378 [label="YearsWithCurrManager <= 2.5\ngini = 0.486\nsamples = 24\nvalue = [14, 10]"] ;
377 -> 378 ;
379 [label="gini = 0.0\nsamples = 13\nvalue = [13, 0]"] ;
378 -> 379 ;
380 [label="MonthlyIncome <= 116095.0\ngini = 0.165\nsamples = 11\nvalue = [1, 10]"] ;
378 -> 380 ;
381 [label="gini = 0.0\nsamples = 10\nvalue = [0, 10]"] ;
380 -> 381 ;
382 [label="gini = 0.0\nsamples = 1\nvalue = [1, 0]"] ;
380 -> 382 ;
383 [label="gini = 0.0\nsamples = 31\nvalue = [31, 0]"] ;
377 -> 383 ;
384 [label="gini = 0.0\nsamples = 100\nvalue = [100, 0]"] ;
340 -> 384 ;
385 [label="NumCompaniesWorked <= 8.5\ngini = 0.276\nsamples = 151\nvalue = [126, 25]"] ;
333 -> 385 ;
386 [label="JobRole <= 7.5\ngini = 0.217\nsamples = 137\nvalue = [120, 17]"] ;
385 -> 386 ;
387 [label="TotalWorkingYears <= 6.5\ngini = 0.187\nsamples = 134\nvalue = [120, 14]"] ;
386 -> 387 ;
388 [label="DistanceFromHome <= 1.5\ngini = 0.43\nsamples = 16\nvalue = [11, 5]"] ;
387 -> 388 ;
389 [label="gini = 0.0\nsamples = 3\nvalue = [0, 3]"] ;
388 -> 389 ;
390 [label="Age <= 42.0\ngini = 0.26\nsamples = 13\nvalue = [11, 2]"] ;
388 -> 390 ;
391 [label="gini = 0.0\nsamples = 11\nvalue = [11, 0]"] ;
390 -> 391 ;
392 [label="gini = 0.0\nsamples = 2\nvalue = [0, 2]"] ;
390 -> 392 ;
393 [label="TrainingTimesLastYear <= 0.5\ngini = 0.141\nsamples = 118\nvalue = [109, 9]"] ;
387 -> 393 ;
394 [label="Age <= 43.0\ngini = 0.48\nsamples = 5\nvalue = [3, 2]"] ;
393 -> 394 ;
395 [label="gini = 0.0\nsamples = 3\nvalue = [3, 0]"] ;
394 -> 395 ;
396 [label="gini = 0.0\nsamples = 2\nvalue = [0, 2]"] ;
394 -> 396 ;
397 [label="DistanceFromHome <= 9.0\ngini = 0.116\nsamples = 113\nvalue = [106, 7]"] ;
393 -> 397 ;
398 [label="gini = 0.0\nsamples = 68\nvalue = [68, 0]"] ;
397 -> 398 ;
399 [label="PercentSalaryHike <= 11.5\ngini = 0.263\nsamples = 45\nvalue = [38, 7]"] ;
397 -> 399 ;
400 [label="YearsAtCompany <= 5.5\ngini = 0.278\nsamples = 6\nvalue = [1, 5]"] ;
399 -> 400 ;
401 [label="gini = 0.0\nsamples = 1\nvalue = [1, 0]"] ;
400 -> 401 ;
402 [label="gini = 0.0\nsamples = 5\nvalue = [0, 5]"] ;
400 -> 402 ;
403 [label="MonthlyIncome <= 24675.0\ngini = 0.097\nsamples = 39\nvalue = [37, 2]"] ;
399 -> 403 ;
404 [label="YearsAtCompany <= 20.5\ngini = 0.5\nsamples = 4\nvalue = [2, 2]"] ;
403 -> 404 ;
405 [label="gini = 0.0\nsamples = 2\nvalue = [0, 2]"] ;
404 -> 405 ;
406 [label="gini = 0.0\nsamples = 2\nvalue = [2, 0]"] ;
404 -> 406 ;
407 [label="gini = 0.0\nsamples = 35\nvalue = [35, 0]"] ;
403 -> 407 ;
408 [label="gini = 0.0\nsamples = 3\nvalue = [0, 3]"] ;
386 -> 408 ;
409 [label="PercentSalaryHike <= 14.5\ngini = 0.49\nsamples = 14\nvalue = [6, 8]"] ;
385 -> 409 ;
410 [label="gini = 0.0\nsamples = 6\nvalue = [6, 0]"] ;
409 -> 410 ;
411 [label="gini = 0.0\nsamples = 8\nvalue = [0, 8]"] ;
409 -> 411 ;
412 [label="Age <= 54.5\ngini = 0.022\nsamples = 272\nvalue = [269, 3]"] ;
332 -> 412 ;
413 [label="gini = 0.0\nsamples = 256\nvalue = [256, 0]"] ;
412 -> 413 ;
414 [label="DistanceFromHome <= 16.5\ngini = 0.305\nsamples = 16\nvalue = [13, 3]"] ;
412 -> 414 ;
415 [label="gini = 0.0\nsamples = 13\nvalue = [13, 0]"] ;
414 -> 415 ;
416 [label="gini = 0.0\nsamples = 3\nvalue = [0, 3]"] ;
414 -> 416 ;
417 [label="JobRole <= 0.5\ngini = 0.252\nsamples = 250\nvalue = [213, 37]"] ;
331 -> 417 ;
418 [label="PercentSalaryHike <= 15.0\ngini = 0.5\nsamples = 18\nvalue = [9, 9]"] ;
417 -> 418 ;
419 [label="PercentSalaryHike <= 11.5\ngini = 0.298\nsamples = 11\nvalue = [2, 9]"] ;
418 -> 419 ;
420 [label="gini = 0.0\nsamples = 2\nvalue = [2, 0]"] ;
419 -> 420 ;
421 [label="gini = 0.0\nsamples = 9\nvalue = [0, 9]"] ;
419 -> 421 ;
422 [label="gini = 0.0\nsamples = 7\nvalue = [7, 0]"] ;
418 -> 422 ;
423 [label="TotalWorkingYears <= 25.5\ngini = 0.212\nsamples = 232\nvalue = [204, 28]"] ;
417 -> 423 ;
424 [label="Age <= 51.5\ngini = 0.249\nsamples = 192\nvalue = [164, 28]"] ;
423 -> 424 ;
425 [label="YearsSinceLastPromotion <= 12.5\ngini = 0.2\nsamples = 177\nvalue = [157, 20]"] ;
424 -> 425 ;
426 [label="MonthlyIncome <= 38575.0\ngini = 0.128\nsamples = 146\nvalue = [136, 10]"] ;
425 -> 426 ;
427 [label="MonthlyIncome <= 36795.0\ngini = 0.303\nsamples = 43\nvalue = [35, 8]"] ;
426 -> 427 ;
428 [label="NumCompaniesWorked <= 3.5\ngini = 0.219\nsamples = 40\nvalue = [35, 5]"] ;
427 -> 428 ;
429 [label="Education <= 1.5\ngini = 0.108\nsamples = 35\nvalue = [33, 2]"] ;
428 -> 429 ;
430 [label="PercentSalaryHike <= 11.5\ngini = 0.375\nsamples = 8\nvalue = [6, 2]"] ;
429 -> 430 ;
431 [label="gini = 0.0\nsamples = 2\nvalue = [0, 2]"] ;
430 -> 431 ;
432 [label="gini = 0.0\nsamples = 6\nvalue = [6, 0]"] ;
430 -> 432 ;
433 [label="gini = 0.0\nsamples = 27\nvalue = [27, 0]"] ;
429 -> 433 ;
434 [label="EducationField <= 1.5\ngini = 0.48\nsamples = 5\nvalue = [2, 3]"] ;
428 -> 434 ;
435 [label="gini = 0.0\nsamples = 2\nvalue = [2, 0]"] ;
434 -> 435 ;
436 [label="gini = 0.0\nsamples = 3\nvalue = [0, 3]"] ;
434 -> 436 ;
437 [label="gini = 0.0\nsamples = 3\nvalue = [0, 3]"] ;
427 -> 437 ;
438 [label="Education <= 1.5\ngini = 0.038\nsamples = 103\nvalue = [101, 2]"] ;
426 -> 438 ;
439 [label="MonthlyIncome <= 64060.0\ngini = 0.32\nsamples = 10\nvalue = [8, 2]"] ;
438 -> 439 ;
440 [label="gini = 0.0\nsamples = 2\nvalue = [0, 2]"] ;
439 -> 440 ;
441 [label="gini = 0.0\nsamples = 8\nvalue = [8, 0]"] ;
439 -> 441 ;
442 [label="gini = 0.0\nsamples = 93\nvalue = [93, 0]"] ;
438 -> 442 ;
443 [label="JobRole <= 6.5\ngini = 0.437\nsamples = 31\nvalue = [21, 10]"] ;
425 -> 443 ;
444 [label="MonthlyIncome <= 24000.0\ngini = 0.236\nsamples = 22\nvalue = [19, 3]"] ;
443 -> 444 ;
445 [label="gini = 0.0\nsamples = 3\nvalue = [0, 3]"] ;
444 -> 445 ;
446 [label="gini = 0.0\nsamples = 19\nvalue = [19, 0]"] ;
444 -> 446 ;
447 [label="JobRole <= 7.5\ngini = 0.346\nsamples = 9\nvalue = [2, 7]"] ;
443 -> 447 ;
448 [label="gini = 0.0\nsamples = 7\nvalue = [0, 7]"] ;
447 -> 448 ;
449 [label="gini = 0.0\nsamples = 2\nvalue = [2, 0]"] ;
447 -> 449 ;
450 [label="YearsAtCompany <= 11.5\ngini = 0.498\nsamples = 15\nvalue = [7, 8]"] ;
424 -> 450 ;
451 [label="gini = 0.0\nsamples = 8\nvalue = [0, 8]"] ;
450 -> 451 ;
452 [label="gini = 0.0\nsamples = 7\nvalue = [7, 0]"] ;
450 -> 452 ;
453 [label="gini = 0.0\nsamples = 40\nvalue = [40, 0]"] ;
423 -> 453 ;
454 [label="PercentSalaryHike <= 11.5\ngini = 0.026\nsamples = 306\nvalue = [302, 4]"] ;
330 -> 454 ;
455 [label="Education <= 1.5\ngini = 0.156\nsamples = 47\nvalue = [43, 4]"] ;
454 -> 455 ;
456 [label="EducationField <= 2.5\ngini = 0.375\nsamples = 4\nvalue = [1, 3]"] ;
455 -> 456 ;
457 [label="gini = 0.0\nsamples = 1\nvalue = [1, 0]"] ;
456 -> 457 ;
458 [label="gini = 0.0\nsamples = 3\nvalue = [0, 3]"] ;
456 -> 458 ;
459 [label="DistanceFromHome <= 21.5\ngini = 0.045\nsamples = 43\nvalue = [42, 1]"] ;
455 -> 459 ;
460 [label="gini = 0.0\nsamples = 42\nvalue = [42, 0]"] ;
459 -> 460 ;
461 [label="gini = 0.0\nsamples = 1\nvalue = [0, 1]"] ;
459 -> 461 ;
462 [label="gini = 0.0\nsamples = 259\nvalue = [259, 0]"] ;
454 -> 462 ;
463 [label="JobRole <= 7.5\ngini = 0.389\nsamples = 53\nvalue = [39, 14]"] ;
329 -> 463 ;
464 [label="Age <= 51.0\ngini = 0.282\nsamples = 47\nvalue = [39, 8]"] ;
463 -> 464 ;
465 [label="DistanceFromHome <= 17.5\ngini = 0.139\nsamples = 40\nvalue = [37, 3]"] ;
464 -> 465 ;
466 [label="gini = 0.0\nsamples = 37\nvalue = [37, 0]"] ;
465 -> 466 ;
467 [label="gini = 0.0\nsamples = 3\nvalue = [0, 3]"] ;
465 -> 467 ;
468 [label="DistanceFromHome <= 22.0\ngini = 0.408\nsamples = 7\nvalue = [2, 5]"] ;
464 -> 468 ;
469 [label="gini = 0.0\nsamples = 5\nvalue = [0, 5]"] ;
468 -> 469 ;
470 [label="gini = 0.0\nsamples = 2\nvalue = [2, 0]"] ;
468 -> 470 ;
471 [label="gini = 0.0\nsamples = 6\nvalue = [0, 6]"] ;
463 -> 471 ;
472 [label="gini = 0.0\nsamples = 5\nvalue = [0, 5]"] ;
150 -> 472 ;
}